[[-0.67240929]]
[[-0.15182005]]
[[-0.00175574]]
[[-0.01107133]]
[[-0.00918794]]
[[-0.00779441]]
[[-0.00116118]]
[[-0.00432937]]
[[-0.00355837]]
[[-0.00027373]]
[[ 0.00056629]]
[[-0.00343156]]
[[-0.00331515]]
[[-0.00322489]]
[[-0.00230867]]
[[-0.00733078]]
[[-0.00107758]]
[[-0.00048433]]
[[-0.00664072]]
[[-0.00466715]]
[[-0.00157002]]
[[-0.0023987]]
[[-0.00167044]]
[[-0.00429698]]
[[-0.00208712]]
[[-0.00182083]]
[[ 0.00060015]]
[[-0.00295624]]
[[ 0.00039491]]
[[ -8.24264462e-05]]
[[-0.00114505]]
[[-0.00342176]]
[[-0.00077511]]
[[ 0.00160891]]
[[-0.00365943]]
[[-0.0048567]]
[[-0.00101774]]
[[-0.00081245]]
[[-0.0016953]]
[[-0.00017194]]
[[  8.03856613e-05]]
[[-0.00100158]]
[[  2.65375169e-05]]
[[-0.00139939]]
[[-0.00558264]]
[[-0.00168028]]
[[ 0.00019679]]
[[ 0.00013531]]
[[ 0.00133445]]
[[-0.0013535]]
[[-0.00584913]]
[[-0.00151694]]
[[-0.00406645]]
[[-0.00117177]]
[[-0.00148572]]
[[-0.00331033]]
[[-0.0002297]]
[[-0.00174552]]
[[-0.00628629]]
[[-0.00325809]]
[[-0.00128837]]
[[-0.00049207]]
[[-0.00414598]]
[[  9.90029493e-05]]
[[ 0.00059956]]
[[ 0.00033394]]
[[-0.00290007]]
[[  2.87064606e-05]]
[[-0.00408482]]
[[-0.00107383]]
[[ 0.00131084]]
[[-0.00190916]]
[[-0.00177874]]
[[ 0.00099277]]
[[-0.00039656]]
[[-0.00226071]]
[[-0.00399811]]
[[-0.00362242]]
[[ 0.0005289]]
[[ 0.00194803]]
[[-0.00065309]]
[[ 0.00162288]]
[[-0.00300144]]
[[-0.0001402]]
[[-0.00221992]]
[[-0.00367635]]
[[-0.00550409]]
[[-0.0017973]]
[[-0.0007171]]
[[-0.00352905]]
[[ 0.00033661]]
[[-0.00029896]]
[[ 0.00165038]]
[[ 0.00092948]]
[[-0.00110065]]
[[-0.000785]]
[[-0.00057877]]
[[-0.00072353]]
[[-0.00190121]]
[[-0.00180481]]
[[ 0.00055078]]
[[ -6.73357839e-05]]
[[-0.0002162]]
[[-0.00432841]]
[[  7.81351572e-06]]
[[-0.00267616]]
[[-0.00459348]]
[[-0.00533336]]
[[-0.00450601]]
[[ 0.00144078]]
[[-0.00187864]]
[[-0.00189118]]
[[ 0.00103588]]
[[ -9.95779683e-05]]
[[-0.00057001]]
[[ 0.00175744]]
[[-0.00369417]]
[[-0.00399937]]
[[-0.00197619]]
[[-0.00129031]]
[[-0.00153698]]
[[-0.0002425]]
[[-0.0005811]]
[[ 0.00153571]]
[[ 0.00041714]]
[[ 0.00012226]]
[[ 0.00015403]]
[[-0.00127432]]
[[-0.00205837]]
[[ 0.00155541]]
[[-0.00061596]]
[[-0.00023685]]
[[ 0.00149248]]
[[ 0.00093869]]
[[-0.00618357]]
[[ 0.00062339]]
[[-0.00032337]]
[[-0.00017813]]
[[-0.00180466]]
[[-0.00011769]]
[[-0.00089919]]
[[-0.00211423]]
[[ 0.00066686]]
[[-0.00160311]]
[[ 0.00130795]]
[[-0.00028109]]
[[-0.00057271]]
[[-0.00194198]]
[[ 0.00130446]]
[[-0.00168825]]
[[ 0.00055097]]
[[ 0.00123728]]
[[-0.00155278]]
[[ 0.00095505]]
[[-0.00093313]]
[[ 0.00127427]]
[[ 0.00143393]]
[[-0.00198318]]
[[-0.00179257]]
[[-0.00100917]]
[[-0.00335798]]
[[-0.00283517]]
[[ 0.00023845]]
[[ 0.00182609]]
[[ 0.00067548]]
[[-0.00237022]]
[[ 0.00128826]]
[[ 0.00028161]]
[[-0.00189315]]
[[ 0.00111374]]
[[ 0.00046617]]
[[-0.00085561]]
[[ 0.00115244]]
[[ 0.00090423]]
[[-0.00155123]]
[[-0.00106036]]
[[ 0.00196386]]
[[-0.00137872]]
[[-0.00144439]]
[[-0.00035948]]
[[ 0.00088535]]
[[-0.00180833]]
[[ 0.00172797]]
[[ 0.00154991]]
[[-0.00154833]]
[[-0.00126286]]
[[ 0.00079052]]
[[-0.00030065]]
[[-0.00146519]]
[[-0.00088014]]
[[-0.00129409]]
[[-0.00071868]]
[[-0.00189728]]
[[-0.00153225]]
[[ 0.00115369]]
[[-0.00143889]]
[[-0.00093426]]
[[ 0.00134853]]
[[ 0.0006797]]
[[ 0.00041606]]
[[ 0.00046334]]
[[-0.00285021]]
[[-0.00121426]]
[[-0.00059635]]
[[ 0.00172465]]
[[-0.00010362]]
[[ 0.00016011]]
[[-0.00177531]]
[[ 0.0006193]]
[[ 0.00072984]]
[[ 0.00054707]]
[[-0.00050542]]
[[ 0.0011395]]
[[-0.00073526]]
[[ 0.00076852]]
[[ 0.00153598]]
[[-0.00037317]]
[[-0.00013223]]
[[  9.64571972e-05]]
[[-0.00010642]]
[[ 0.00019339]]
[[ 0.00044739]]
[[-0.00114063]]
[[  3.42947718e-05]]
[[-0.00135533]]
[[-0.00180706]]
[[-0.00044137]]
[[ 0.00112817]]
[[-0.00411517]]
[[-0.00388825]]
[[-0.00141591]]
[[-0.00196222]]
[[-0.00199352]]
[[-0.00125776]]
[[ 0.00195753]]
[[-0.0001945]]
[[-0.00165132]]
[[-0.0018625]]
[[ 0.00163109]]
[[ 0.00114839]]
[[-0.00017051]]
[[-0.00126451]]
[[-0.00016256]]
[[-0.00129432]]
[[ 0.00135399]]
[[ 0.00028245]]
[[-0.00077014]]
[[ 0.00102537]]
[[ 0.00131825]]
[[ 0.00122965]]
[[-0.00351062]]
[[ 0.0014277]]
[[-0.00093809]]
[[ 0.00098354]]
[[ 0.00048811]]
[[-0.00047143]]
[[ 0.00090353]]
[[-0.00317022]]
[[ 0.00168843]]
[[ 0.00041241]]
[[-0.00184458]]
[[-0.00174885]]
[[ 0.00065367]]
[[-0.00118107]]
[[-0.0009543]]
[[ 0.00055271]]
[[ 0.00156062]]
[[ 0.00160732]]
[[ 0.00190917]]
[[-0.00045408]]
[[ 0.00112276]]
[[ 0.00068632]]
[[ 0.00183997]]
[[-0.00194119]]
[[  9.13146615e-05]]
[[ 0.00113171]]
[[-0.00042884]]
[[ 0.00190116]]
[[ 0.00083537]]
[[-0.00013689]]
[[-0.00147822]]
[[ 0.00042823]]
[[ 0.00181232]]
[[-0.00135204]]
[[ 0.00067587]]
[[-0.00161287]]
[[  8.27256556e-05]]
[[ 0.00078447]]
[[ 0.00163022]]
[[ 0.00066444]]
[[  7.14244071e-05]]
[[ 0.00105692]]
[[-0.00096989]]
[[ -1.22039084e-05]]
[[-0.00165145]]
[[-0.0001481]]
[[-0.00187948]]
[[-0.00165542]]
[[-0.00151066]]
[[-0.00160074]]
[[-0.00013753]]
[[ 0.00021409]]
[[-0.0006129]]
[[-0.00219535]]
[[-0.00152254]]
[[ 0.00077454]]
[[ 0.00145177]]
[[ 0.00159885]]
[[ 0.00074946]]
[[ 0.00189021]]
[[-0.0001834]]
[[ 0.00078986]]
[[-0.00060267]]
[[ 0.00186059]]
[[-0.00057521]]
[[ 0.00165341]]
[[ 0.001697]]
[[ -4.85392363e-05]]
[[-0.00429771]]
[[-0.00187411]]
[[-0.00108429]]
[[-0.00457929]]
[[ 0.00087095]]
[[-0.00193485]]
[[ 0.00095459]]
[[-0.00300214]]
[[-0.00024251]]
[[ 0.00063352]]
[[ 0.00019819]]
[[-0.00294199]]
[[-0.00173449]]
[[-0.00145739]]
[[-0.00107397]]
[[ 0.00157436]]
[[-0.00152966]]
[[ 0.00121136]]
[[ 0.00078415]]
[[ 0.00089499]]
[[-0.00118537]]
[[-0.00123028]]
[[-0.00308654]]
[[ 0.00044316]]
[[ 0.00067136]]
[[-0.00069934]]
[[ 0.00191382]]
[[ 0.00025342]]
[[-0.00072763]]
[[ 0.00091429]]
[[-0.00401131]]
[[-0.00091473]]
[[-0.00162218]]
[[ 0.00181651]]
[[ 0.0012516]]
[[-0.0019634]]
[[-0.00171356]]
[[-0.00125115]]
[[-0.00077527]]
[[ 0.00098737]]
[[ 0.00169085]]
[[ 0.00033291]]
[[-0.00138382]]
[[-0.00051035]]
[[ 0.00188078]]
[[-0.00461409]]
[[-0.00105373]]
[[  2.55665074e-05]]
[[-0.00172741]]
[[-0.00092559]]
[[-0.00012226]]
[[-0.00165746]]
[[-0.00164581]]
[[ 0.00197092]]
[[-0.0006181]]
[[ 0.00184995]]
[[-0.00155077]]
[[ 0.00174901]]
[[-0.00026698]]
[[ -8.42545396e-05]]
[[ 0.00100119]]
[[-0.00188066]]
[[ 0.00015167]]
[[-0.00089432]]
[[-0.00105131]]
[[-0.00133424]]
[[-0.00165655]]
[[-0.002386]]
[[-0.00033391]]
[[-0.00130425]]
[[-0.00075436]]
[[-0.00074211]]
[[ 0.00036567]]
[[ 0.00182465]]
[[  3.29212549e-05]]
[[-0.00145093]]
[[-0.00125279]]
[[-0.00046352]]
[[ 0.00037874]]
[[ 0.00010369]]
[[-0.00057576]]
[[  8.83186921e-05]]
[[ 0.00196161]]
[[ -4.50778051e-05]]
[[ 0.00159715]]
[[ 0.00014421]]
[[ 0.00109832]]
[[ 0.00138103]]
[[-0.00033253]]
[[ 0.00029354]]
[[-0.00190725]]
[[-0.0011601]]
[[-0.00180654]]
[[-0.00035137]]
[[ -1.21478072e-06]]
[[ 0.00036721]]
[[-0.00339223]]
[[ 0.00111109]]
[[-0.00122604]]
[[ 0.00108291]]
[[-0.00093488]]
[[-0.00145794]]
[[-0.00125015]]
[[ 0.00130356]]
[[ 0.00123817]]
[[-0.00082181]]
[[  2.30318293e-05]]
[[ 0.00049122]]
[[-0.00090382]]
[[-0.00058078]]
[[-0.00192979]]
[[-0.00144121]]
[[ 0.00128257]]
[[-0.00122847]]
[[ 0.00161123]]
[[-0.0009421]]
[[ 0.00187669]]
[[-0.00057348]]
[[ 0.00105421]]
[[-0.00172979]]
[[ 0.00153069]]
[[ 0.00044664]]
[[-0.00442111]]
[[ 0.00162285]]
[[-0.00120806]]
[[ 0.00093315]]
[[-0.00102556]]
[[-0.0039055]]
[[-0.00163685]]
[[ 0.00150326]]
[[-0.004544]]
[[-0.00054786]]
[[ 0.00168858]]
[[-0.00102579]]
[[ 0.00182661]]
[[ 0.001219]]
[[ 0.00049554]]
[[-0.00173913]]
[[-0.00033496]]
[[ 0.00039076]]
[[ 0.00151823]]
[[-0.00043856]]
[[ 0.00165199]]
[[-0.00179294]]
[[-0.00162844]]
[[-0.0040265]]
[[ 0.00045258]]
[[-0.00119586]]
[[-0.00184635]]
[[ 0.00062272]]
[[ 0.00030099]]
[[ 0.0001766]]
[[ 0.00163422]]
[[ 0.00125626]]
[[ 0.00030949]]
[[-0.00104623]]
[[ 0.00195981]]
[[ 0.00034611]]
[[-0.00192842]]
[[ 0.00062346]]
[[-0.00167456]]
[[-0.00159384]]
[[-0.00017278]]
[[-0.00013473]]
[[-0.00099743]]
[[ 0.00024732]]
[[-0.00154459]]
[[-0.00065319]]
[[-0.00177269]]
[[-0.00150254]]
[[ 0.00149694]]
[[ 0.00102165]]
[[ 0.00049647]]
[[ 0.00016558]]
[[-0.00192845]]
[[-0.00079689]]
[[ 0.00104308]]
[[ 0.00178844]]
[[-0.0005027]]
[[-0.00154967]]
[[-0.00037709]]
[[ 0.00054701]]
[[ 0.00134363]]
[[ 0.00177631]]
[[ 0.00143048]]
[[-0.00053449]]
[[ 0.00114573]]
[[ 0.00086965]]
[[-0.00153446]]
[[-0.00176797]]
[[-0.00097613]]
[[ 0.00186564]]
[[ 0.00037926]]
[[-0.00102628]]
[[ 0.00036629]]
[[ 0.00138107]]
[[ 0.00067895]]
[[ 0.00080257]]
[[ 0.00177167]]
[[ 0.00127943]]
[[-0.00118355]]
[[ 0.00058621]]
[[-0.00167252]]
[[ 0.00109211]]
[[ 0.00014017]]
[[ 0.00191402]]
[[-0.00174003]]
[[-0.00017692]]
[[ 0.00167331]]
[[ 0.0008545]]
[[-0.00046742]]
[[ 0.00036462]]
[[-0.00115106]]
[[ 0.00088216]]
[[ 0.00035931]]
[[ 0.00086444]]
[[-0.00110839]]
[[ 0.00062191]]
[[ 0.00032243]]
[[ 0.00111281]]
[[-0.00111272]]
[[ 0.00095526]]
[[ 0.00164699]]
[[ 0.00125741]]
[[-0.00112599]]
[[ -6.99365066e-05]]
[[-0.00095526]]
[[ 0.00028968]]
[[ -1.85241051e-05]]
[[-0.00139159]]
[[-0.00164973]]
[[ 0.00024935]]
[[ 0.00071676]]
[[-0.0010331]]
[[-0.00073314]]
[[ 0.00041727]]
[[-0.00120458]]
[[ 0.00039692]]
[[-0.00033669]]
[[-0.00048542]]
[[ 0.00112837]]
[[-0.00023279]]
[[-0.00314218]]
[[ 0.00189825]]
[[-0.00083209]]
[[-0.00010463]]
[[ 0.00193131]]
[[ 0.00129582]]
[[-0.00173869]]
[[-0.00067682]]
[[-0.00087712]]
[[-0.00158397]]
[[ 0.00022409]]
[[ 0.00021323]]
[[ 0.00152333]]
[[-0.00131165]]
[[-0.00023618]]
[[ 0.001183]]
[[ 0.00082802]]
[[ 0.00078431]]
[[ 0.00146174]]
[[-0.0004526]]
[[ 0.00161979]]
[[ 0.00180389]]
[[ 0.00021418]]
[[ 0.0006955]]
[[-0.00097911]]
[[ -9.33581414e-05]]
[[-0.00147119]]
[[ 0.00197357]]
[[-0.00082656]]
[[ 0.00041341]]
[[ 0.00131514]]
[[-0.00028044]]
[[-0.00167784]]
[[ 0.00061351]]
[[ 0.00019489]]
[[ 0.00116386]]
[[-0.00140306]]
[[-0.00010586]]
[[ 0.00099472]]
[[ 0.00175772]]
[[-0.00086168]]
[[-0.0018591]]
[[-0.00022091]]
[[ 0.00055153]]
[[-0.00222672]]
[[-0.00053655]]
[[ 0.00134244]]
[[ 0.00088617]]
[[ 0.00014209]]
[[ 0.00018835]]
[[-0.00095714]]
[[-0.00156652]]
[[  4.67877883e-06]]
[[-0.00146038]]
[[ 0.0003926]]
[[  7.09411198e-05]]
[[-0.00023584]]
[[-0.00141271]]
[[ 0.00020852]]
[[ 0.00173379]]
[[ 0.0014883]]
[[-0.00173111]]
[[ 0.00081856]]
[[-0.00153821]]
[[ 0.00092687]]
[[-0.00166386]]
[[ 0.00057238]]
[[  2.61053151e-05]]
[[-0.00085109]]
[[-0.00029732]]
[[-0.00391312]]
[[ -2.13751656e-05]]
[[-0.00041978]]
[[ 0.0017949]]
[[-0.00123087]]
[[ 0.00051428]]
[[-0.00030727]]
[[-0.00181796]]
[[-0.00153607]]
[[ 0.00048069]]
[[-0.00073707]]
[[ 0.00115352]]
[[ 0.00091419]]
[[ 0.00169755]]
[[ 0.00166319]]
[[ 0.00081871]]
[[ 0.00189883]]
[[-0.00177299]]
[[ 0.00069901]]
[[ 0.00160078]]
[[-0.00124521]]
[[  5.83843190e-05]]
[[ 0.00156344]]
[[-0.00118156]]
[[ 0.00075881]]
[[-0.00175046]]
[[-0.00045707]]
[[ 0.00082667]]
[[-0.00146786]]
[[-0.00146437]]
[[ 0.00192201]]
[[  2.92288338e-05]]
[[ 0.0012856]]
[[ 0.00027322]]
[[ 0.00054852]]
[[-0.00168394]]
[[-0.00073842]]
[[-0.00183725]]
[[ 0.00120916]]
[[ 0.00162024]]
[[-0.00114538]]
[[-0.00199467]]
[[ 0.00128702]]
[[ 0.00107281]]
[[ 0.00160595]]
[[-0.00093802]]
[[ 0.00036971]]
[[-0.00139572]]
[[ 0.00146334]]
[[-0.00178758]]
[[-0.00158177]]
[[-0.00095421]]
[[-0.0011869]]
[[  1.14035671e-05]]
[[-0.00098291]]
[[ 0.00148843]]
[[-0.00053437]]
[[-0.00197632]]
[[-0.00028986]]
[[ 0.00010671]]
[[ 0.00025582]]
[[-0.00187742]]
[[-0.0005127]]
[[ 0.00031408]]
[[ 0.00150526]]
[[ -1.65691438e-05]]
[[-0.00066579]]
[[-0.00191296]]
[[-0.00038431]]
[[ 0.00127953]]
[[-0.00131718]]
[[ 0.00197667]]
[[-0.00146]]
[[-0.00132444]]
[[-0.00016128]]
[[ 0.00111321]]
[[ 0.00029883]]
[[-0.00174947]]
[[ 0.00139835]]
[[-0.00052469]]
[[ 0.00142801]]
[[-0.00074382]]
[[ 0.0019581]]
[[ 0.00177012]]
[[ -5.54034706e-05]]
[[-0.00171217]]
[[-0.00171665]]
[[-0.00088719]]
[[ 0.000131]]
[[-0.00025327]]
[[ 0.00010931]]
[[-0.00125309]]
[[ 0.00110179]]
[[ 0.00057585]]
[[ 0.00131667]]
[[ 0.00159095]]
[[ -4.37633768e-05]]
[[ 0.00074598]]
[[ 0.00193798]]
[[-0.00030692]]
[[ 0.00026468]]
[[-0.00015121]]
[[-0.00094459]]
[[-0.0001228]]
[[ 0.00058999]]
[[ 0.00102613]]
[[-0.00099448]]
[[-0.00139131]]
[[-0.00104113]]
[[ 0.0012754]]
[[-0.00071594]]
[[-0.00069394]]
[[ 0.00047878]]
[[-0.00064139]]
[[ -2.31653532e-05]]
[[ 0.00057078]]
[[-0.00119411]]
[[-0.00068352]]
[[-0.0012174]]
[[-0.00064832]]
[[ -4.35000003e-06]]
[[-0.00166942]]
[[ 0.00175502]]
[[-0.00110804]]
[[  6.17331013e-05]]
[[-0.00026798]]
[[-0.0003291]]
[[-0.0023294]]
[[ 0.00123025]]
[[-0.00143897]]
[[-0.00056675]]
[[ 0.00037167]]
[[-0.00093703]]
[[ 0.00068487]]
[[-0.00403533]]
[[-0.00110032]]
[[-0.00116291]]
[[-0.00011136]]
[[ 0.00113501]]
[[-0.00193265]]
[[ 0.00165527]]
[[ 0.00050517]]
[[ 0.00158507]]
[[-0.00024475]]
[[-0.00093014]]
[[-0.00131294]]
[[ 0.00119294]]
[[ 0.00044572]]
[[ -3.83968708e-05]]
[[-0.00032939]]
[[ 0.00183323]]
[[-0.00127789]]
[[-0.00063928]]
[[-0.00081292]]
[[-0.00093926]]
[[-0.00031382]]
[[-0.00189835]]
[[-0.00033998]]
[[-0.00071727]]
[[  5.00208766e-05]]
[[ 0.00183195]]
[[  6.51629498e-05]]
[[ 0.0019367]]
[[-0.00386517]]
[[ 0.00143208]]
[[-0.00014383]]
[[ 0.00104592]]
[[-0.00166833]]
[[-0.00482929]]
[[ 0.00103685]]
[[-0.00139117]]
[[-0.00328143]]
[[-0.00291334]]
[[-0.00122198]]
[[  3.68130386e-05]]
[[ 0.00171973]]
[[ 0.00041359]]
[[ 0.00015316]]
[[-0.00137653]]
[[-0.00019936]]
[[ -8.03418124e-05]]
[[ 0.00186443]]
[[-0.00087004]]
[[-0.00125725]]
[[ 0.00073561]]
[[ 0.00089147]]
[[-0.00083551]]
[[ 0.00098647]]
[[-0.000508]]
[[-0.00015952]]
[[-0.00010919]]
[[-0.00017378]]
[[ 0.00181425]]
[[ -6.96506379e-05]]
[[ 0.00015159]]
[[ 0.00121298]]
[[ 0.00134505]]
[[-0.00395835]]
[[ 0.0018856]]
[[  8.71012429e-05]]
[[-0.00032489]]
[[ 0.00113444]]
[[ 0.00160811]]
[[ 0.00140874]]
[[-0.00193599]]
[[-0.00160238]]
[[ 0.00125374]]
[[-0.00126452]]
[[-0.0012142]]
[[-0.00061992]]
[[-0.00131895]]
[[-0.00126256]]
[[ 0.00165467]]
[[ 0.00117962]]
[[-0.0009817]]
[[ 0.00096891]]
[[ 0.00111339]]
[[-0.00048021]]
[[-0.00047118]]
[[-0.00058881]]
[[-0.00118775]]
[[-0.00188388]]
[[-0.0019439]]
[[-0.00035171]]
[[ 0.00113071]]
[[-0.00104631]]
[[-0.00060948]]
[[-0.00369621]]
[[-0.00090936]]
[[-0.00079346]]
[[ 0.00098459]]
[[ 0.00155631]]
[[-0.00104845]]
[[ 0.00123459]]
[[-0.00145074]]
[[ -8.72229537e-05]]
[[ 0.00017642]]
[[ 0.00055192]]
[[ 0.00043587]]
[[-0.0006057]]
[[-0.00163041]]
[[ 0.00034757]]
[[-0.00083782]]
[[ 0.00180189]]
[[-0.00169589]]
[[ 0.00123453]]
[[ 0.00063173]]
[[-0.00123649]]
[[ 0.0016828]]
[[ 0.00033703]]
[[-0.0035387]]
[[-0.00178173]]
[[-0.00019975]]
[[ 0.00133576]]
[[-0.00100127]]
[[ 0.00057066]]
[[-0.00151466]]
[[ 0.00108122]]
[[ 0.00171413]]
[[-0.00060278]]
[[-0.00053647]]
[[ 0.00149868]]
[[-0.00127229]]
[[-0.0019813]]
[[-0.00137682]]
[[-0.00163856]]
[[ 0.00148365]]
[[ 0.00080546]]
[[-0.00131534]]
[[ 0.0016111]]
[[-0.00121504]]
[[ 0.00149744]]
[[-0.00187944]]
[[ 0.00084504]]
[[ 0.00177944]]
[[-0.00135604]]
[[ 0.00062499]]
[[ 0.00064193]]
[[-0.00011357]]
[[ 0.00072596]]
[[-0.00025356]]
[[-0.00114294]]
[[ 0.00030608]]
[[  1.56239112e-05]]
[[ 0.00116674]]
[[-0.00087334]]
[[-0.00092975]]
[[ -6.70230932e-05]]
[[ 0.0012015]]
[[ 0.0011879]]
[[-0.00035854]]
[[-0.00078077]]
[[ 0.00184996]]
[[ 0.00049283]]
[[  5.10036760e-05]]
[[ 0.00150723]]
[[-0.00089116]]
[[-0.00165112]]
[[-0.00063553]]
[[ 0.00076275]]
[[-0.00142978]]
[[ 0.00199342]]
[[-0.00093382]]
[[-0.00151242]]
[[-0.00199443]]
[[ 0.00036281]]
[[ 0.00147865]]
[[-0.00096084]]
[[  5.46766856e-05]]
[[-0.00111398]]
[[-0.00162211]]
[[ 0.00072197]]
[[-0.00159806]]
[[-0.00179355]]
[[-0.00171934]]
[[-0.0003203]]
[[ 0.00063916]]
[[ 0.00127106]]
[[-0.00146538]]
[[-0.00027882]]
[[ 0.0005084]]
[[-0.00095816]]
[[ 0.00125458]]
[[-0.00068142]]
[[ 0.00013776]]
[[ 0.00063289]]
[[-0.00080297]]
[[ 0.00144286]]
[[ 0.00091428]]
[[-0.00173762]]
[[ 0.00171691]]
[[ 0.00195096]]
[[ 0.00015408]]
[[-0.00069654]]
[[ 0.00150611]]
[[-0.00299445]]
[[-0.00088442]]
[[-0.00048978]]
[[-0.00108071]]
[[ 0.00047925]]
[[ 0.00070654]]
[[ 0.0019641]]
[[-0.00181933]]
[[-0.00171293]]
[[ 0.00147014]]
[[ 0.00091903]]
[[-0.00164958]]
[[-0.00155442]]
[[ 0.00186332]]
[[ 0.0017489]]
[[-0.00436424]]
[[ 0.00152907]]
[[ 0.00088018]]
[[ 0.00086973]]
[[ 0.00197653]]
[[ -3.95482155e-05]]
[[ 0.0019618]]
[[ 0.00090167]]
[[ 0.00055672]]
[[ 0.00020424]]
[[-0.00156193]]
[[-0.00118323]]
[[ 0.00179531]]
[[-0.00105592]]
[[-0.0006774]]
[[ 0.0010122]]
[[ 0.00156338]]
[[-0.00012625]]
[[ -8.29690947e-05]]
[[ -5.92979811e-05]]
[[ 0.00040782]]
[[ 0.00038884]]
[[-0.00197791]]
[[ 0.00170471]]
[[ 0.00092436]]
[[ 0.00185159]]
[[-0.00155912]]
[[-0.00142435]]
[[ 0.00179935]]
[[ 0.00155955]]
[[-0.00099471]]
[[  7.13095314e-05]]
[[-0.00077686]]
[[-0.00054655]]
[[ 0.00125963]]
[[-0.00100367]]
[[-0.00121375]]
[[ 0.00189286]]
[[ 0.00104047]]
[[-0.00115925]]
[[ 0.00057643]]
[[-0.00194377]]
[[-0.00160639]]
[[-0.00080084]]
[[ -1.24847143e-05]]
[[ 0.00069704]]
[[ 0.00023576]]
[[-0.00141004]]
[[ 0.00146321]]
[[-0.0011827]]
[[-0.00011272]]
[[ 0.001218]]
[[ 0.00099491]]
[[ 0.00189277]]
[[ 0.00043508]]
[[ 0.00068064]]
[[-0.00085541]]
[[-0.0007213]]
[[-0.00072225]]
[[-0.00323228]]
[[ 0.00085883]]
[[ 0.00126412]]
[[ 0.00175081]]
[[-0.00027158]]
[[  7.88489554e-05]]
[[-0.00082239]]
[[-0.00152012]]
[[ 0.00110782]]
[[-0.00095247]]
[[-0.00124451]]
[[ 0.00190831]]
[[  7.85755234e-05]]
[[-0.00079215]]
[[ 0.00049484]]
[[ 0.00116636]]
[[ 0.00035624]]
[[-0.00187278]]
[[-0.00134975]]
[[ 0.00152268]]
[[ 0.00197167]]
[[-0.00021491]]
[[ 0.00028088]]
[[-0.0005342]]
[[-0.00174605]]
[[-0.00088274]]
[[-0.0017452]]
[[-0.00159507]]
[[-0.00053363]]
[[ 0.00019286]]
[[-0.00020596]]
[[ 0.00020911]]
[[ 0.00173077]]
[[-0.00090963]]
[[ 0.00145828]]
[[ 0.00055781]]
[[ 0.00025898]]
[[ 0.00116773]]
[[-0.00056365]]
[[-0.00172541]]
[[-0.00064531]]
[[-0.00050276]]
[[-0.00081537]]
[[-0.00060057]]
[[-0.00097423]]
[[-0.00060786]]
[[ 0.000239]]
[[ 0.00079655]]
[[ 0.0017184]]
[[ 0.00025716]]
[[-0.00266662]]
[[ 0.00100404]]
[[ 0.00163387]]
[[ 0.00162332]]
[[-0.00199937]]
[[-0.00068084]]
[[ 0.00140843]]
[[-0.00181703]]
[[ 0.00190473]]
[[-0.00062718]]
[[ 0.00156582]]
[[-0.00110535]]
[[ 0.00123358]]
[[ 0.00123012]]
[[-0.00103617]]
[[-0.00183307]]
[[-0.00110898]]
[[ 0.00132956]]
[[ 0.00026766]]
[[ 0.00198619]]
[[-0.00471501]]
[[ -7.21598133e-05]]
[[-0.00106097]]
[[-0.00412808]]
[[ 0.00097922]]
[[-0.00134433]]
[[-0.00136892]]
[[ 0.00012779]]
[[-0.00066331]]
[[ 0.00072369]]
[[-0.00081229]]
[[ 0.00075968]]
[[ 0.00022188]]
[[-0.00167551]]
[[-0.00092595]]
[[ 0.00149265]]
[[ 0.00092473]]
[[-0.00146107]]
[[-0.00126611]]
[[-0.00095105]]
[[ 0.00188552]]
[[-0.00078455]]
[[ 0.00105834]]
[[ 0.00105949]]
[[-0.00196489]]
[[-0.00150617]]
[[-0.00093151]]
[[-0.00057362]]
[[-0.001772]]
[[ 0.00051842]]
[[ 0.00034482]]
[[ 0.00172786]]
[[ -8.10461784e-05]]
[[ 0.00109488]]
[[-0.00063288]]
[[-0.00038625]]
[[ 0.00083623]]
[[ -1.86898937e-05]]
[[-0.00020165]]
[[-0.00146198]]
[[ 0.00033889]]
[[ 0.00161633]]
[[-0.00030453]]
[[-0.00022995]]
[[-0.00121078]]
[[ 0.00154574]]
[[-0.0013202]]
[[ 0.00174522]]
[[-0.00132664]]
[[-0.00175104]]
[[ 0.00182546]]
[[ 0.00112754]]
[[ 0.00037309]]
[[ 0.00077136]]
[[-0.0019783]]
[[-0.00037242]]
[[-0.00064575]]
[[ 0.00024525]]
[[ 0.00030516]]
[[ 0.00125494]]
[[ 0.00140519]]
[[-0.00018891]]
[[ 0.00127235]]
[[-0.00143358]]
[[-0.0015023]]
[[-0.00019034]]
[[-0.00011793]]
[[ 0.00129918]]
[[-0.00175866]]
[[ 0.00010809]]
[[ 0.0004389]]
[[-0.00237899]]
[[-0.0006328]]
[[-0.00167924]]
[[ 0.00131394]]
[[-0.00069261]]
[[ 0.00078179]]
[[ 0.00013777]]
[[-0.00281854]]
[[ 0.00149035]]
[[-0.00063888]]
[[ 0.00138673]]
[[-0.00096933]]
[[-0.00143089]]
[[ 0.00035823]]
[[ 0.00039927]]
[[ 0.00070987]]
[[-0.00114316]]
[[-0.00066494]]
[[-0.00019339]]
[[ 0.0015079]]
[[-0.00103327]]
[[ 0.00135186]]
[[ 0.00092745]]
[[-0.00069192]]
[[-0.00095825]]
[[-0.0002244]]
[[ 0.00156785]]
[[ 0.00096503]]
[[-0.00192468]]
[[ 0.00170806]]
[[-0.00018273]]
[[ 0.0002427]]
[[  1.06328800e-05]]
[[ 0.00085531]]
[[-0.00161443]]
[[ 0.00036225]]
[[ 0.00187487]]
[[ 0.00199279]]
[[-0.00023913]]
[[-0.00187583]]
[[ 0.00122217]]
[[-0.00270762]]
[[-0.00099446]]
[[-0.00133887]]
[[ -1.79564911e-05]]
[[-0.00177653]]
[[-0.00111101]]
[[ 0.00086702]]
[[ 0.00040865]]
[[ 0.00019716]]
[[ 0.00162616]]
[[ 0.0017776]]
[[-0.00051201]]
[[ 0.0013371]]
[[-0.00343282]]
[[-0.00170455]]
[[-0.00048091]]
[[-0.0001374]]
[[ 0.00123091]]
[[-0.00181028]]
[[ 0.00031268]]
[[ 0.00089749]]
[[ 0.00161325]]
[[-0.00101345]]
[[ 0.00050821]]
[[ 0.00078347]]
[[-0.00032843]]
[[ 0.00011165]]
[[-0.00018359]]
[[-0.00176894]]
[[-0.00190385]]
[[-0.00096106]]
[[ 0.00115371]]
[[ 0.00107671]]
[[-0.00177335]]
[[-0.00368872]]
[[-0.0002272]]
[[ 0.0011307]]
[[ 0.00037506]]
[[-0.00016736]]
[[  3.96077879e-05]]
[[-0.0001135]]
[[ 0.00158003]]
[[-0.00024946]]
[[ 0.00023141]]
[[-0.00414278]]
[[ 0.00149068]]
[[-0.00095815]]
[[-0.00080195]]
[[-0.00158387]]
[[ 0.00172407]]
[[ 0.00112903]]
[[ 0.00052159]]
[[-0.00121323]]
[[ 0.0012743]]
[[ -4.30501705e-05]]
[[ 0.00088395]]
[[-0.00155463]]
[[ 0.00125513]]
[[ 0.00135325]]
[[ 0.00102028]]
[[ 0.00058621]]
[[-0.00059441]]
[[ 0.00177458]]
[[ 0.0003726]]
[[-0.00152379]]
[[ 0.00121083]]
[[-0.00042039]]
[[-0.00137038]]
[[-0.00010276]]
[[-0.00041232]]
[[ 0.0014662]]
[[ 0.00026752]]
[[ 0.00186862]]
[[-0.0009563]]
[[-0.00108051]]
[[-0.00038017]]
[[ 0.00058261]]
[[ 0.00100945]]
[[-0.00184996]]
[[-0.00147245]]
[[ 0.0004287]]
[[ -4.28676624e-05]]
[[-0.00165722]]
[[ -8.36121768e-05]]
[[-0.00122598]]
[[-0.00021617]]
[[ 0.00192981]]
[[-0.00334977]]
[[-0.00182787]]
[[ 0.00127446]]
[[ 0.00120962]]
[[ 0.0019179]]
[[-0.00175841]]
[[ 0.00118202]]
[[ 0.00199102]]
[[-0.00062398]]
[[ 0.00155189]]
[[-0.0013558]]
[[ 0.00140461]]
[[-0.0001447]]
[[  8.26901836e-05]]
[[-0.00096891]]
[[ 0.00138973]]
[[-0.00132397]]
[[ 0.00137666]]
[[-0.00061572]]
[[-0.00110713]]
[[-0.00063539]]
[[ 0.00085928]]
[[-0.00239479]]
[[-0.00138302]]
[[-0.00041414]]
[[ 0.00098583]]
[[-0.00085336]]
[[ 0.00034592]]
[[-0.00048353]]
[[ 0.00013772]]
[[ 0.00061283]]
[[-0.00044986]]
[[ 0.00041857]]
[[-0.00136992]]
[[-0.00127496]]
[[ 0.00122084]]
[[-0.00170812]]
[[-0.00103492]]
[[ 0.0012771]]
[[ 0.00070656]]
[[ 0.00145902]]
[[-0.0001609]]
[[-0.00151109]]
[[ 0.00099724]]
[[-0.00179913]]
[[-0.00037819]]
[[-0.00193911]]
[[-0.00106171]]
[[-0.00094651]]
[[ 0.00168465]]
[[ 0.00043479]]
[[-0.00012775]]
[[-0.00112576]]
[[ 0.00131995]]
[[ 0.00105966]]
[[ 0.00193729]]
[[-0.00058287]]
[[-0.00163593]]
[[ 0.00163435]]
[[-0.00151431]]
[[ 0.00037485]]
[[ -4.03421703e-05]]
[[ 0.00068808]]
[[ 0.00072497]]
[[ 0.00052724]]
[[ 0.00165348]]
[[ 0.00186262]]
[[ 0.00037418]]
[[ 0.00149366]]
[[-0.00134179]]
[[-0.00196237]]
[[ 0.00049052]]
[[-0.00195728]]
[[-0.00074278]]
[[ 0.00112152]]
[[-0.00064555]]
[[-0.00146858]]
[[ 0.00172148]]
[[ 0.00133388]]
[[-0.00105472]]
[[-0.00198037]]
[[ 0.00137254]]
[[ 0.00024183]]
[[-0.00085916]]
[[-0.00065482]]
[[ 0.00090761]]
[[-0.00040979]]
[[-0.00064772]]
[[-0.00014642]]
[[-0.00095954]]
[[ 0.00049137]]
[[-0.0015192]]
[[ 0.00104538]]
[[-0.00067826]]
[[-0.00112522]]
[[ 0.00108629]]
[[-0.0008638]]
[[ 0.00172658]]
[[-0.00135062]]
[[-0.00166815]]
[[ 0.00096361]]
[[ 0.00082975]]
[[ 0.00028468]]
[[-0.0010258]]
[[ 0.00028098]]
[[-0.00078764]]
[[ 0.00112607]]
[[-0.00191202]]
[[-0.0002971]]
[[ 0.00071068]]
[[-0.00156456]]
[[ 0.00099572]]
[[-0.00100706]]
[[ 0.00116257]]
[[-0.00146172]]
[[-0.00056542]]
[[ 0.0015507]]
[[ -5.28573283e-05]]
[[-0.00014677]]
[[-0.00175608]]
[[ 0.00104949]]
[[ 0.00021002]]
[[ 0.00190308]]
[[ 0.00140534]]
[[ -9.91244253e-05]]
[[-0.00116027]]
[[ 0.00073363]]
[[-0.00079628]]
[[ 0.00049096]]
[[ 0.00156867]]
[[-0.00066204]]
[[  2.48552881e-05]]
[[ 0.00023111]]
[[-0.00040416]]
[[ 0.00073506]]
[[-0.00115002]]
[[-0.00080434]]
[[-0.00098488]]
[[-0.00172154]]
[[ 0.00080318]]
[[-0.00127873]]
[[-0.00120243]]
[[ 0.00113869]]
[[ 0.0015211]]
[[-0.00099792]]
[[-0.00035375]]
[[-0.00073987]]
[[ 0.00065929]]
[[-0.00165882]]
[[-0.00446966]]
[[-0.00150141]]
[[-0.00039896]]
[[  7.97516105e-05]]
[[ 0.00128586]]
[[-0.0010512]]
[[-0.00093976]]
[[-0.00019455]]
[[ 0.00102721]]
[[ 0.0004758]]
[[ 0.00191316]]
[[-0.00027822]]
[[ 0.00051921]]
[[-0.00095324]]
[[ 0.00045385]]
[[ 0.00031145]]
[[-0.00036408]]
[[-0.0015071]]
[[-0.00123699]]
[[-0.00078171]]
[[ 0.00120827]]
[[-0.00125188]]
[[ 0.00100566]]
[[-0.00112637]]
[[-0.00112526]]
[[ 0.00060663]]
[[ 0.00021877]]
[[ 0.00022428]]
[[ 0.00111718]]
[[ 0.00118367]]
